[
  [
    {
      "weights": [
        -19.299851025544886, -13.668227107807358, -6.765622200642014,
        0.031258755431507135, -23.444540767180566, 32.05108587659504,
        -17.651180876496678, -7.081414585468014, -3.242322769808576
      ],
      "bias": -11.256681533286432
    },
    {
      "weights": [
        -12.581998908552437, -21.221034724745838, -9.816710563632949,
        -4.859592357231661, -30.97814097225287, -1.8841881868975698,
        -12.313085437599542, -10.004155196369936, -6.48973450156822
      ],
      "bias": -16.077619150200874
    },
    {
      "weights": [
        -3.644515782452746, -2.696138636082457, -7.2058457993523595,
        -7.104121160856815, -6.485292180356377, -18.98292856127921,
        -2.9192585579248607, -7.485546902046206, -10.821706869482663
      ],
      "bias": -12.518256080571232
    },
    {
      "weights": [
        -11.642164635565942, -10.689782832050696, -6.436535147916744,
        -4.628151957540948, -13.799631298918566, 2.6809378777717736,
        -10.842203980950915, -8.27397211187751, -7.091157028530511
      ],
      "bias": -12.170546621263222
    },
    {
      "weights": [
        -15.891629677494066, -14.304639449968947, -7.727271544306395,
        -3.3996277223687033, -22.077994746697094, 15.899380794332753,
        -16.374745287688654, -7.530999066846587, -3.535140477948427
      ],
      "bias": -13.224986869373483
    },
    {
      "weights": [
        -2.1851350496552446, -7.637989333223885, -4.323534888457336,
        -1.6533482092873104, -11.412690697564607, -5.484881303517202,
        -2.9543239595895217, -3.6800864049936886, -3.625063272506735
      ],
      "bias": -5.68891192041063
    },
    {
      "weights": [
        1.5986759864450997, 4.055038732986437, -7.721720134664438,
        -17.085101813938337, 10.692835406241816, -41.08132994713696,
        1.5692253703926737, -8.61546306016127, -18.748632822125742
      ],
      "bias": -14.947767957083235
    },
    {
      "weights": [
        -3.6112575009458054, -3.6251538463990336, -1.841694197840675,
        -2.56915366485636, -5.743955376036318, -1.3477434521546983,
        -2.270820855911708, -2.759320035814873, -4.8104140345556745
      ],
      "bias": -4.6928144760651875
    },
    {
      "weights": [
        -19.57723630352094, -14.505372902704817, -7.958736441416091,
        -0.2501466997965865, -24.838591238449794, 26.188342588007124,
        -19.69805716650262, -7.895132806295642, -2.756938867877179
      ],
      "bias": -12.844967653647023
    }
  ],
  [
    {
      "weights": [
        0.6378760714253381, -0.665949506011688, -0.6571556024335674,
        -0.1728610766056974, -0.7885356099100012, -0.3738356246893232,
        0.30752551895669994, 1.0904561508589588, -0.3909423923517568
      ],
      "bias": 1.195281014934334
    },
    {
      "weights": [
        -0.4160244110496367, -0.30261152909444705, -0.4636213126076245,
        -1.4682801907420981, -0.04178501362396161, -0.05264936040419908,
        -0.6919392612407284, -0.8018876524205166, 0.7217889691178502
      ],
      "bias": -1.2265560628758336
    },
    {
      "weights": [
        -1.123881343870078, -0.6665000061565594, -1.4746708765414829,
        -0.8571603068457471, -0.6574350759333208, -1.0365335121493167,
        -1.368739160606204, 0.16910168609898676, -0.5700646964568636
      ],
      "bias": -1.5847177549992417
    },
    {
      "weights": [
        -1.5587203159430165, -0.6261991722618206, -0.15375243075985562,
        -0.824298906043607, -0.7609950819612155, -0.2644563396457198,
        0.4241873136411987, -0.9464543366554803, -0.801968059603293
      ],
      "bias": -2.262337235913253
    },
    {
      "weights": [
        1.156777812739261, 0.5569618940301638, 1.0547306236185752,
        0.07553242128615659, -1.0167798515942703, 1.2675483911631937,
        0.20515239019898626, -0.8589486393645211, 0.9122789329514875
      ],
      "bias": 0.3682200851915769
    },
    {
      "weights": [
        -0.9828217081366792, -0.3466675516512003, 0.0017826380506675303,
        -0.6474711730913578, 0.3414902581784665, -1.0135577464112364,
        0.09617985051348006, -0.8859364997148028, 0.8209131026872505
      ],
      "bias": -0.09254396316065884
    },
    {
      "weights": [
        0.8569175091443864, 0.9505851907175913, 0.46191630919447935,
        0.7024025641795107, -0.04043175334441885, 0.5372278876848988,
        -0.8505089374409416, 0.5679552691215174, -0.3657954409557019
      ],
      "bias": 1.3070993942031324
    },
    {
      "weights": [
        0.39390396550757995, 0.8162270130048805, 0.013120007018801835,
        -0.2249299435062887, 0.665194477557216, -0.299082611687496,
        0.8040314043733185, -0.18231561226073698, 0.835875021976899
      ],
      "bias": 2.1571941996079484
    },
    {
      "weights": [
        -0.01670437621349071, -0.5981350772410163, 0.43140266713414205,
        -0.7759415944741759, -0.6128788578229106, -0.28697179056679295,
        0.8020899209786682, -0.4601065000308783, -0.06818268678992495
      ],
      "bias": -1.1121080538509058
    }
  ],
  [
    {
      "weights": [
        0.7199896357052845, 0.45537281667782714, 0.15752770652056375,
        -0.1580348174403888, -0.07800601232188561, -0.46029235370547383,
        -0.807432088096349, -0.4059711402367706, -0.20488037376756418
      ],
      "bias": 0.6480521010466882
    },
    {
      "weights": [
        -0.362961668812992, 0.566563118931516, 0.24313639037276563,
        -0.9595445094102412, -0.8121324960710659, -0.3340460102246685,
        0.7521695917933197, -0.5939583211331131, 0.337308310677901
      ],
      "bias": 0.6965686839488328
    },
    {
      "weights": [
        -0.24105995377728603, 0.07039695030090282, -1.4539152598445486,
        0.6040972545823288, 0.3625485129560744, 0.1401498941569176,
        0.3497320803091131, -0.14322315510019654, 0.4342455237403788
      ],
      "bias": -0.09229304191686938
    },
    {
      "weights": [
        -0.3486600398265698, 0.0469859147761755, 1.1815904717314647,
        0.24552925137113862, -0.398287964364281, 0.44664740742250875,
        0.159847613599855, -0.7014997940827525, -0.29358889848019465
      ],
      "bias": 0.7680275119258065
    },
    {
      "weights": [
        0.23920253661456278, 0.54694486839209, 1.310253115304299,
        -0.5261338856195266, -0.33923343007586615, 0.44645054091431646,
        -0.34677058000150746, -0.8413437136712869, 0.1264454786112694
      ],
      "bias": 0.6847324181110255
    },
    {
      "weights": [
        0.5743483424257304, 0.708190690868104, -0.8720100932093452,
        0.6167686970819409, 0.25487018340927015, 0.5486171185989995,
        -0.7276714500461664, -0.747677736573317, 0.7146386323317998
      ],
      "bias": 0.14195375095083362
    },
    {
      "weights": [
        -0.23916536267696611, -0.07566821668773, 0.42053443000565616,
        -0.4989439041293181, 0.3839126230137751, -0.04965611631854657,
        -0.36614240108255736, -0.16369373516985017, 0.768193559810139
      ],
      "bias": 0.21748537528265205
    },
    {
      "weights": [
        -0.2260065760302046, 0.003339232482524686, 0.7615266892426715,
        0.7757785072808309, -0.36207864319941074, -0.6365989885019641,
        -0.37785418334777826, 0.8972422375806289, -0.18689997204340938
      ],
      "bias": 0.19334958716538495
    },
    {
      "weights": [
        -0.2513502698149822, -0.6489450245999144, -0.9870665611499443,
        0.5521137151486601, 1.465207179854579, -0.5145078969813544,
        -0.49775204452439537, -0.16154580204929286, 0.5270458935630492
      ],
      "bias": 0.6709694730181117
    }
  ]
]
