[[{"weights":[-0.05661170491048395,-0.007327063043810256,-0.276210699775306,0.6871387850221811,0.43710142061076906,-0.33843750817689777,0.3174892179664712,-0.18303380476095343,-0.18957432401198648],"bias":0.08681233835638458},{"weights":[-0.13665148769852697,0.08800648400001876,0.490454996960461,0.5620109908452711,-0.8986405229019412,-0.4980016841154855,-0.4983408334142658,0.8333439630083452,-0.07799581010040413],"bias":0.09141052900116509},{"weights":[0.2638539799557842,0.35914375473355564,-0.16371765060896903,0.9539623827739088,0.8445502492042603,0.5647227450157004,-0.8449201066565708,-0.5710635357883724,-0.8353852777044999],"bias":0.10334664902549062},{"weights":[-0.6454006819551847,-0.5748318527403016,0.5668799463015035,0.026184437556607598,0.3606478925652161,-0.6372766465716264,-0.9874252063736879,0.059441246479418286,0.799622625452737],"bias":0.4335066438927757},{"weights":[0.1072642918364326,-0.5680659140399977,0.23259548024598464,-0.31203533475034195,-0.9964144772399264,-0.8549036282022833,-0.2813109670753282,0.7887064643180959,0.9120589007664375],"bias":0.40523207489735036},{"weights":[-0.4346416457986102,0.17113129718031583,-0.36525784756899604,0.36945400719828436,0.6778676888838864,-0.9259163281323515,0.8318520093071555,0.4343486620109558,-0.8165933391012952],"bias":0.44762592151091285},{"weights":[0.7845576399935439,0.8484866065147556,-0.6491229197750674,-0.7315067335453214,-0.3379239686142781,0.4758166764099836,-0.6943686462182335,-0.29486614305283654,0.16804716816684273],"bias":0.798637917532194},{"weights":[-0.4852787123093929,0.8873860634514026,0.7828837225767753,0.6114322802867225,-0.14746039422265378,0.06254939305157947,-0.43250806861585733,-0.09412891853582783,-0.8776921732648493],"bias":0.35222620792111115},{"weights":[0.05555935937368783,0.9119177281463302,0.7836634143387355,-0.8188950942391213,-0.5327024974923091,-0.30177749169034485,0.3115326812813013,0.04181634997560302,-0.2211319794457367],"bias":0.37263061254790397}],[{"weights":[-0.8349082241873438,-0.39544863377084516,-0.1536643020049837,-0.9328913300910413,-0.08705233028393211,0.013300655408211348,-0.8627894176432491,-0.6177111558596469,0.7446236593570141],"bias":0.4333078302570217},{"weights":[0.8151074134500798,0.7667318486646573,0.9896063700811419,-0.26512259000685434,-0.5548316014463515,-0.4513468436733983,-0.12284182149045231,0.19110648151687037,-0.09921393218945296],"bias":0.49910361338006104},{"weights":[0.2561311188672768,-0.27341868676934267,-0.9363710974103974,0.04935284281047858,0.6832650536696558,-0.5994602717664543,0.8144643422636544,0.039999811074833413,0.2281820628988922],"bias":0.08308935095551861},{"weights":[0.23426162406882067,0.3771394146255882,-0.6549332127273906,-0.0029664300828744494,-0.7100287762877584,0.19841713076533374,-0.732053609375011,0.2835702844265846,-0.23685453889559982],"bias":0.4660107416126613},{"weights":[0.6438093318439937,0.1531298127922982,0.5590313733552845,0.9350730512806753,-0.1959599639922267,0.6744247144432309,0.02627425258799798,-0.7624508632313671,-0.24362611966939252],"bias":0.7404592597960824},{"weights":[0.47791660554454785,0.17979870743437232,-0.3203128605962018,-0.7420761873959636,-0.9779459338795942,-0.8417531926518129,-0.23754394888272934,0.4511169906738801,-0.3701997914059185],"bias":0.3524973562555429},{"weights":[-0.6130563244453922,-0.5784337496690646,-0.37938254046147213,0.9366587525067422,0.11050157872065203,-0.6522406737645796,0.5518556572676419,-0.4603613175468113,0.7560864421207696],"bias":0.026910178248000793},{"weights":[0.8320160052093275,0.4507289737878204,0.745420110088963,-0.7368606855518696,0.5147598377833518,-0.4070509265562281,-0.9640666110232541,-0.636747746715213,-0.38833823364802234],"bias":0.022451117828666378},{"weights":[-0.5613527115967663,-0.04319497223806179,-0.3417310508701883,0.037605683242563526,0.9037745327109592,0.3670704006315635,0.389059048721871,-0.9168832101163966,0.9356177567286017],"bias":0.3980342176805609}],[{"weights":[0.3557596046781315,-0.5260362273638517,-0.19191242167836897,0.6656066318647227,-0.2980656814567877,0.8377769960439192,0.6922770538091712,0.1493062085815029,-0.5063470707359756],"bias":0.7055484401051662},{"weights":[-0.34807718099067575,0.4603141394085011,-0.9594762418323688,-0.6093848811160316,-0.9492692475394202,-0.03868048214130049,-0.8784102323601997,-0.9588104618258511,-0.7518477243483623],"bias":0.06458231650380797},{"weights":[0.45532091051512946,-0.8553876004018202,0.3252577794738225,0.09339313286442597,0.32299650740470254,-0.7520896819472336,-0.2216315667110722,0.8626097612571595,0.5195132044291708],"bias":0.9587827846189776},{"weights":[-0.8896384939835658,-0.2626733399400396,0.6566277782426653,0.24649598252179938,-0.11116236982336591,-0.5140927280517253,-0.5652555298773789,-0.42596858653142444,-0.10560630573614471],"bias":0.4711243307922015},{"weights":[-0.05466533381822636,0.8059915132486135,-0.3141294029743511,-0.9055002359931406,-0.6851641055011743,-0.3142181750600437,0.8416160533127619,0.6341897075212595,-0.6973225808140358],"bias":0.952058885582336},{"weights":[-0.1888824605812025,-0.8466251498365063,0.5868806237618736,0.18426234942550845,0.8055250007321453,-0.3577251110957347,0.9047227565927076,0.322836645562377,-0.03471252222553689],"bias":0.7936691328625283},{"weights":[-0.954993188622379,-0.48641180474710266,0.10708255487875507,0.3383632668072982,0.891199548646421,-0.34986876471515593,-0.08115724779189915,-0.0905386630837155,-0.28557792815366634],"bias":0.25759763418635373},{"weights":[0.24971919563416956,-0.47004529811814777,-0.10706098525771202,0.16120449196063902,0.5820541795445862,0.3641965875298183,-0.11193457965151499,0.8336723349219595,-0.08941604234984357],"bias":0.9848495512344055},{"weights":[-0.1309214299957504,-0.06327706984256531,0.5598289663432152,-0.2385793167902155,0.09308103956580549,-0.2901483324814942,-0.5863337761072036,-0.021691542968574673,0.32747837913073585],"bias":0.6378054905157085}]]